digraph Tree {
node [shape=box, style="filled", color="black", fontname="helvetica"] ;
edge [fontname="helvetica"] ;
0 [label="male <= 0.5\ngini = 0.473\nsamples = 623\nvalue = [384, 239]\nclass = 0", fillcolor="#f5cfb4"] ;
1 [label="Pclass <= 2.5\ngini = 0.389\nsamples = 231\nvalue = [61, 170]\nclass = 1", fillcolor="#80c0ee"] ;
0 -> 1 [labeldistance=2.5, labelangle=45, headlabel="True"] ;
2 [label="Fare <= 28.856\ngini = 0.107\nsamples = 123\nvalue = [7, 116]\nclass = 1", fillcolor="#45a3e7"] ;
1 -> 2 ;
3 [label="Age <= 56.0\ngini = 0.198\nsamples = 54\nvalue = [6, 48]\nclass = 1", fillcolor="#52a9e8"] ;
2 -> 3 ;
4 [label="Fare <= 28.231\ngini = 0.171\nsamples = 53\nvalue = [5, 48]\nclass = 1", fillcolor="#4ea7e8"] ;
3 -> 4 ;
5 [label="Age <= 22.5\ngini = 0.142\nsamples = 52\nvalue = [4, 48]\nclass = 1", fillcolor="#49a5e7"] ;
4 -> 5 ;
6 [label="gini = 0.0\nsamples = 10\nvalue = [0, 10]\nclass = 1", fillcolor="#399de5"] ;
5 -> 6 ;
7 [label="Age <= 26.5\ngini = 0.172\nsamples = 42\nvalue = [4, 38]\nclass = 1", fillcolor="#4ea7e8"] ;
5 -> 7 ;
8 [label="Age <= 25.5\ngini = 0.375\nsamples = 8\nvalue = [2, 6]\nclass = 1", fillcolor="#7bbeee"] ;
7 -> 8 ;
9 [label="Fare <= 13.75\ngini = 0.245\nsamples = 7\nvalue = [1, 6]\nclass = 1", fillcolor="#5aade9"] ;
8 -> 9 ;
10 [label="Cabin_encoded_N <= 0.5\ngini = 0.5\nsamples = 2\nvalue = [1, 1]\nclass = 0", fillcolor="#ffffff"] ;
9 -> 10 ;
11 [label="gini = 0.0\nsamples = 1\nvalue = [0, 1]\nclass = 1", fillcolor="#399de5"] ;
10 -> 11 ;
12 [label="gini = 0.0\nsamples = 1\nvalue = [1, 0]\nclass = 0", fillcolor="#e58139"] ;
10 -> 12 ;
13 [label="gini = 0.0\nsamples = 5\nvalue = [0, 5]\nclass = 1", fillcolor="#399de5"] ;
9 -> 13 ;
14 [label="gini = 0.0\nsamples = 1\nvalue = [1, 0]\nclass = 0", fillcolor="#e58139"] ;
8 -> 14 ;
15 [label="Age <= 37.0\ngini = 0.111\nsamples = 34\nvalue = [2, 32]\nclass = 1", fillcolor="#45a3e7"] ;
7 -> 15 ;
16 [label="gini = 0.0\nsamples = 19\nvalue = [0, 19]\nclass = 1", fillcolor="#399de5"] ;
15 -> 16 ;
17 [label="Age <= 39.0\ngini = 0.231\nsamples = 15\nvalue = [2, 13]\nclass = 1", fillcolor="#57ace9"] ;
15 -> 17 ;
18 [label="gini = 0.0\nsamples = 1\nvalue = [1, 0]\nclass = 0", fillcolor="#e58139"] ;
17 -> 18 ;
19 [label="SibSp <= 0.5\ngini = 0.133\nsamples = 14\nvalue = [1, 13]\nclass = 1", fillcolor="#48a5e7"] ;
17 -> 19 ;
20 [label="gini = 0.0\nsamples = 10\nvalue = [0, 10]\nclass = 1", fillcolor="#399de5"] ;
19 -> 20 ;
21 [label="Age <= 44.5\ngini = 0.375\nsamples = 4\nvalue = [1, 3]\nclass = 1", fillcolor="#7bbeee"] ;
19 -> 21 ;
22 [label="Age <= 43.0\ngini = 0.5\nsamples = 2\nvalue = [1, 1]\nclass = 0", fillcolor="#ffffff"] ;
21 -> 22 ;
23 [label="gini = 0.0\nsamples = 1\nvalue = [0, 1]\nclass = 1", fillcolor="#399de5"] ;
22 -> 23 ;
24 [label="gini = 0.0\nsamples = 1\nvalue = [1, 0]\nclass = 0", fillcolor="#e58139"] ;
22 -> 24 ;
25 [label="gini = 0.0\nsamples = 2\nvalue = [0, 2]\nclass = 1", fillcolor="#399de5"] ;
21 -> 25 ;
26 [label="gini = 0.0\nsamples = 1\nvalue = [1, 0]\nclass = 0", fillcolor="#e58139"] ;
4 -> 26 ;
27 [label="gini = 0.0\nsamples = 1\nvalue = [1, 0]\nclass = 0", fillcolor="#e58139"] ;
3 -> 27 ;
28 [label="Parch <= 1.5\ngini = 0.029\nsamples = 69\nvalue = [1, 68]\nclass = 1", fillcolor="#3c9ee5"] ;
2 -> 28 ;
29 [label="gini = 0.0\nsamples = 61\nvalue = [0, 61]\nclass = 1", fillcolor="#399de5"] ;
28 -> 29 ;
30 [label="Fare <= 135.775\ngini = 0.219\nsamples = 8\nvalue = [1, 7]\nclass = 1", fillcolor="#55abe9"] ;
28 -> 30 ;
31 [label="gini = 0.0\nsamples = 6\nvalue = [0, 6]\nclass = 1", fillcolor="#399de5"] ;
30 -> 31 ;
32 [label="Fare <= 207.275\ngini = 0.5\nsamples = 2\nvalue = [1, 1]\nclass = 0", fillcolor="#ffffff"] ;
30 -> 32 ;
33 [label="gini = 0.0\nsamples = 1\nvalue = [1, 0]\nclass = 0", fillcolor="#e58139"] ;
32 -> 33 ;
34 [label="gini = 0.0\nsamples = 1\nvalue = [0, 1]\nclass = 1", fillcolor="#399de5"] ;
32 -> 34 ;
35 [label="Fare <= 23.7\ngini = 0.5\nsamples = 108\nvalue = [54, 54]\nclass = 0", fillcolor="#ffffff"] ;
1 -> 35 ;
36 [label="Age <= 36.5\ngini = 0.483\nsamples = 88\nvalue = [36, 52]\nclass = 1", fillcolor="#c2e1f7"] ;
35 -> 36 ;
37 [label="Fare <= 7.763\ngini = 0.47\nsamples = 82\nvalue = [31, 51]\nclass = 1", fillcolor="#b1d9f5"] ;
36 -> 37 ;
38 [label="Fare <= 6.987\ngini = 0.32\nsamples = 20\nvalue = [4, 16]\nclass = 1", fillcolor="#6ab6ec"] ;
37 -> 38 ;
39 [label="gini = 0.0\nsamples = 1\nvalue = [1, 0]\nclass = 0", fillcolor="#e58139"] ;
38 -> 39 ;
40 [label="Fare <= 7.523\ngini = 0.266\nsamples = 19\nvalue = [3, 16]\nclass = 1", fillcolor="#5eafea"] ;
38 -> 40 ;
41 [label="gini = 0.0\nsamples = 5\nvalue = [0, 5]\nclass = 1", fillcolor="#399de5"] ;
40 -> 41 ;
42 [label="Fare <= 7.64\ngini = 0.337\nsamples = 14\nvalue = [3, 11]\nclass = 1", fillcolor="#6fb8ec"] ;
40 -> 42 ;
43 [label="Age <= 26.35\ngini = 0.444\nsamples = 3\nvalue = [2, 1]\nclass = 0", fillcolor="#f2c09c"] ;
42 -> 43 ;
44 [label="gini = 0.0\nsamples = 1\nvalue = [0, 1]\nclass = 1", fillcolor="#399de5"] ;
43 -> 44 ;
45 [label="gini = 0.0\nsamples = 2\nvalue = [2, 0]\nclass = 0", fillcolor="#e58139"] ;
43 -> 45 ;
46 [label="Age <= 21.5\ngini = 0.165\nsamples = 11\nvalue = [1, 10]\nclass = 1", fillcolor="#4da7e8"] ;
42 -> 46 ;
47 [label="Fare <= 7.7\ngini = 0.444\nsamples = 3\nvalue = [1, 2]\nclass = 1", fillcolor="#9ccef2"] ;
46 -> 47 ;
48 [label="gini = 0.0\nsamples = 1\nvalue = [0, 1]\nclass = 1", fillcolor="#399de5"] ;
47 -> 48 ;
49 [label="Age <= 18.5\ngini = 0.5\nsamples = 2\nvalue = [1, 1]\nclass = 0", fillcolor="#ffffff"] ;
47 -> 49 ;
50 [label="gini = 0.0\nsamples = 1\nvalue = [0, 1]\nclass = 1", fillcolor="#399de5"] ;
49 -> 50 ;
51 [label="gini = 0.0\nsamples = 1\nvalue = [1, 0]\nclass = 0", fillcolor="#e58139"] ;
49 -> 51 ;
52 [label="gini = 0.0\nsamples = 8\nvalue = [0, 8]\nclass = 1", fillcolor="#399de5"] ;
46 -> 52 ;
53 [label="Fare <= 15.373\ngini = 0.492\nsamples = 62\nvalue = [27, 35]\nclass = 1", fillcolor="#d2e9f9"] ;
37 -> 53 ;
54 [label="SibSp <= 0.5\ngini = 0.499\nsamples = 42\nvalue = [22, 20]\nclass = 0", fillcolor="#fdf4ed"] ;
53 -> 54 ;
55 [label="Fare <= 10.825\ngini = 0.491\nsamples = 30\nvalue = [13, 17]\nclass = 1", fillcolor="#d0e8f9"] ;
54 -> 55 ;
56 [label="Age <= 25.5\ngini = 0.499\nsamples = 21\nvalue = [11, 10]\nclass = 0", fillcolor="#fdf4ed"] ;
55 -> 56 ;
57 [label="Age <= 14.5\ngini = 0.42\nsamples = 10\nvalue = [7, 3]\nclass = 0", fillcolor="#f0b78e"] ;
56 -> 57 ;
58 [label="gini = 0.0\nsamples = 2\nvalue = [2, 0]\nclass = 0", fillcolor="#e58139"] ;
57 -> 58 ;
59 [label="Age <= 16.5\ngini = 0.469\nsamples = 8\nvalue = [5, 3]\nclass = 0", fillcolor="#f5cdb0"] ;
57 -> 59 ;
60 [label="gini = 0.0\nsamples = 1\nvalue = [0, 1]\nclass = 1", fillcolor="#399de5"] ;
59 -> 60 ;
61 [label="Age <= 22.5\ngini = 0.408\nsamples = 7\nvalue = [5, 2]\nclass = 0", fillcolor="#efb388"] ;
59 -> 61 ;
62 [label="Fare <= 10.179\ngini = 0.48\nsamples = 5\nvalue = [3, 2]\nclass = 0", fillcolor="#f6d5bd"] ;
61 -> 62 ;
63 [label="Fare <= 9.84\ngini = 0.5\nsamples = 4\nvalue = [2, 2]\nclass = 0", fillcolor="#ffffff"] ;
62 -> 63 ;
64 [label="Age <= 20.0\ngini = 0.444\nsamples = 3\nvalue = [2, 1]\nclass = 0", fillcolor="#f2c09c"] ;
63 -> 64 ;
65 [label="gini = 0.0\nsamples = 1\nvalue = [1, 0]\nclass = 0", fillcolor="#e58139"] ;
64 -> 65 ;
66 [label="Fare <= 8.806\ngini = 0.5\nsamples = 2\nvalue = [1, 1]\nclass = 0", fillcolor="#ffffff"] ;
64 -> 66 ;
67 [label="gini = 0.0\nsamples = 1\nvalue = [0, 1]\nclass = 1", fillcolor="#399de5"] ;
66 -> 67 ;
68 [label="gini = 0.0\nsamples = 1\nvalue = [1, 0]\nclass = 0", fillcolor="#e58139"] ;
66 -> 68 ;
69 [label="gini = 0.0\nsamples = 1\nvalue = [0, 1]\nclass = 1", fillcolor="#399de5"] ;
63 -> 69 ;
70 [label="gini = 0.0\nsamples = 1\nvalue = [1, 0]\nclass = 0", fillcolor="#e58139"] ;
62 -> 70 ;
71 [label="gini = 0.0\nsamples = 2\nvalue = [2, 0]\nclass = 0", fillcolor="#e58139"] ;
61 -> 71 ;
72 [label="Fare <= 7.988\ngini = 0.463\nsamples = 11\nvalue = [4, 7]\nclass = 1", fillcolor="#aad5f4"] ;
56 -> 72 ;
73 [label="Age <= 30.35\ngini = 0.375\nsamples = 8\nvalue = [2, 6]\nclass = 1", fillcolor="#7bbeee"] ;
72 -> 73 ;
74 [label="Age <= 28.85\ngini = 0.245\nsamples = 7\nvalue = [1, 6]\nclass = 1", fillcolor="#5aade9"] ;
73 -> 74 ;
75 [label="Fare <= 7.91\ngini = 0.444\nsamples = 3\nvalue = [1, 2]\nclass = 1", fillcolor="#9ccef2"] ;
74 -> 75 ;
76 [label="gini = 0.0\nsamples = 1\nvalue = [1, 0]\nclass = 0", fillcolor="#e58139"] ;
75 -> 76 ;
77 [label="gini = 0.0\nsamples = 2\nvalue = [0, 2]\nclass = 1", fillcolor="#399de5"] ;
75 -> 77 ;
78 [label="gini = 0.0\nsamples = 4\nvalue = [0, 4]\nclass = 1", fillcolor="#399de5"] ;
74 -> 78 ;
79 [label="gini = 0.0\nsamples = 1\nvalue = [1, 0]\nclass = 0", fillcolor="#e58139"] ;
73 -> 79 ;
80 [label="Fare <= 8.367\ngini = 0.444\nsamples = 3\nvalue = [2, 1]\nclass = 0", fillcolor="#f2c09c"] ;
72 -> 80 ;
81 [label="gini = 0.0\nsamples = 2\nvalue = [2, 0]\nclass = 0", fillcolor="#e58139"] ;
80 -> 81 ;
82 [label="gini = 0.0\nsamples = 1\nvalue = [0, 1]\nclass = 1", fillcolor="#399de5"] ;
80 -> 82 ;
83 [label="Fare <= 13.938\ngini = 0.346\nsamples = 9\nvalue = [2, 7]\nclass = 1", fillcolor="#72b9ec"] ;
55 -> 83 ;
84 [label="gini = 0.0\nsamples = 6\nvalue = [0, 6]\nclass = 1", fillcolor="#399de5"] ;
83 -> 84 ;
85 [label="Fare <= 14.852\ngini = 0.444\nsamples = 3\nvalue = [2, 1]\nclass = 0", fillcolor="#f2c09c"] ;
83 -> 85 ;
86 [label="gini = 0.0\nsamples = 1\nvalue = [1, 0]\nclass = 0", fillcolor="#e58139"] ;
85 -> 86 ;
87 [label="Age <= 29.35\ngini = 0.5\nsamples = 2\nvalue = [1, 1]\nclass = 0", fillcolor="#ffffff"] ;
85 -> 87 ;
88 [label="gini = 0.0\nsamples = 1\nvalue = [0, 1]\nclass = 1", fillcolor="#399de5"] ;
87 -> 88 ;
89 [label="gini = 0.0\nsamples = 1\nvalue = [1, 0]\nclass = 0", fillcolor="#e58139"] ;
87 -> 89 ;
90 [label="Age <= 18.5\ngini = 0.375\nsamples = 12\nvalue = [9, 3]\nclass = 0", fillcolor="#eeab7b"] ;
54 -> 90 ;
91 [label="Fare <= 12.794\ngini = 0.48\nsamples = 5\nvalue = [2, 3]\nclass = 1", fillcolor="#bddef6"] ;
90 -> 91 ;
92 [label="gini = 0.0\nsamples = 2\nvalue = [0, 2]\nclass = 1", fillcolor="#399de5"] ;
91 -> 92 ;
93 [label="Age <= 14.75\ngini = 0.444\nsamples = 3\nvalue = [2, 1]\nclass = 0", fillcolor="#f2c09c"] ;
91 -> 93 ;
94 [label="gini = 0.0\nsamples = 2\nvalue = [2, 0]\nclass = 0", fillcolor="#e58139"] ;
93 -> 94 ;
95 [label="gini = 0.0\nsamples = 1\nvalue = [0, 1]\nclass = 1", fillcolor="#399de5"] ;
93 -> 95 ;
96 [label="gini = 0.0\nsamples = 7\nvalue = [7, 0]\nclass = 0", fillcolor="#e58139"] ;
90 -> 96 ;
97 [label="Parch <= 3.5\ngini = 0.375\nsamples = 20\nvalue = [5, 15]\nclass = 1", fillcolor="#7bbeee"] ;
53 -> 97 ;
98 [label="Fare <= 18.629\ngini = 0.332\nsamples = 19\nvalue = [4, 15]\nclass = 1", fillcolor="#6eb7ec"] ;
97 -> 98 ;
99 [label="Fare <= 17.6\ngini = 0.444\nsamples = 12\nvalue = [4, 8]\nclass = 1", fillcolor="#9ccef2"] ;
98 -> 99 ;
100 [label="Age <= 30.85\ngini = 0.198\nsamples = 9\nvalue = [1, 8]\nclass = 1", fillcolor="#52a9e8"] ;
99 -> 100 ;
101 [label="gini = 0.0\nsamples = 7\nvalue = [0, 7]\nclass = 1", fillcolor="#399de5"] ;
100 -> 101 ;
102 [label="Age <= 34.0\ngini = 0.5\nsamples = 2\nvalue = [1, 1]\nclass = 0", fillcolor="#ffffff"] ;
100 -> 102 ;
103 [label="gini = 0.0\nsamples = 1\nvalue = [1, 0]\nclass = 0", fillcolor="#e58139"] ;
102 -> 103 ;
104 [label="gini = 0.0\nsamples = 1\nvalue = [0, 1]\nclass = 1", fillcolor="#399de5"] ;
102 -> 104 ;
105 [label="gini = 0.0\nsamples = 3\nvalue = [3, 0]\nclass = 0", fillcolor="#e58139"] ;
99 -> 105 ;
106 [label="gini = 0.0\nsamples = 7\nvalue = [0, 7]\nclass = 1", fillcolor="#399de5"] ;
98 -> 106 ;
107 [label="gini = 0.0\nsamples = 1\nvalue = [1, 0]\nclass = 0", fillcolor="#e58139"] ;
97 -> 107 ;
108 [label="Age <= 55.0\ngini = 0.278\nsamples = 6\nvalue = [5, 1]\nclass = 0", fillcolor="#ea9a61"] ;
36 -> 108 ;
109 [label="gini = 0.0\nsamples = 5\nvalue = [5, 0]\nclass = 0", fillcolor="#e58139"] ;
108 -> 109 ;
110 [label="gini = 0.0\nsamples = 1\nvalue = [0, 1]\nclass = 1", fillcolor="#399de5"] ;
108 -> 110 ;
111 [label="Fare <= 31.331\ngini = 0.18\nsamples = 20\nvalue = [18, 2]\nclass = 0", fillcolor="#e88f4f"] ;
35 -> 111 ;
112 [label="gini = 0.0\nsamples = 10\nvalue = [10, 0]\nclass = 0", fillcolor="#e58139"] ;
111 -> 112 ;
113 [label="Fare <= 32.881\ngini = 0.32\nsamples = 10\nvalue = [8, 2]\nclass = 0", fillcolor="#eca06a"] ;
111 -> 113 ;
114 [label="gini = 0.0\nsamples = 2\nvalue = [0, 2]\nclass = 1", fillcolor="#399de5"] ;
113 -> 114 ;
115 [label="gini = 0.0\nsamples = 8\nvalue = [8, 0]\nclass = 0", fillcolor="#e58139"] ;
113 -> 115 ;
116 [label="Cabin_encoded_N <= 0.5\ngini = 0.29\nsamples = 392\nvalue = [323, 69]\nclass = 0", fillcolor="#eb9c63"] ;
0 -> 116 [labeldistance=2.5, labelangle=-45, headlabel="False"] ;
117 [label="Age <= 17.5\ngini = 0.484\nsamples = 73\nvalue = [43, 30]\nclass = 0", fillcolor="#f7d9c3"] ;
116 -> 117 ;
118 [label="gini = 0.0\nsamples = 6\nvalue = [0, 6]\nclass = 1", fillcolor="#399de5"] ;
117 -> 118 ;
119 [label="Fare <= 12.938\ngini = 0.46\nsamples = 67\nvalue = [43, 24]\nclass = 0", fillcolor="#f4c7a8"] ;
117 -> 119 ;
120 [label="gini = 0.0\nsamples = 7\nvalue = [7, 0]\nclass = 0", fillcolor="#e58139"] ;
119 -> 120 ;
121 [label="Age <= 43.0\ngini = 0.48\nsamples = 60\nvalue = [36, 24]\nclass = 0", fillcolor="#f6d5bd"] ;
119 -> 121 ;
122 [label="Fare <= 42.75\ngini = 0.492\nsamples = 32\nvalue = [14, 18]\nclass = 1", fillcolor="#d3e9f9"] ;
121 -> 122 ;
123 [label="Parch <= 0.5\ngini = 0.337\nsamples = 14\nvalue = [3, 11]\nclass = 1", fillcolor="#6fb8ec"] ;
122 -> 123 ;
124 [label="Cabin_encoded_C <= 0.5\ngini = 0.153\nsamples = 12\nvalue = [1, 11]\nclass = 1", fillcolor="#4ba6e7"] ;
123 -> 124 ;
125 [label="gini = 0.0\nsamples = 7\nvalue = [0, 7]\nclass = 1", fillcolor="#399de5"] ;
124 -> 125 ;
126 [label="Fare <= 28.725\ngini = 0.32\nsamples = 5\nvalue = [1, 4]\nclass = 1", fillcolor="#6ab6ec"] ;
124 -> 126 ;
127 [label="gini = 0.0\nsamples = 1\nvalue = [1, 0]\nclass = 0", fillcolor="#e58139"] ;
126 -> 127 ;
128 [label="gini = 0.0\nsamples = 4\nvalue = [0, 4]\nclass = 1", fillcolor="#399de5"] ;
126 -> 128 ;
129 [label="gini = 0.0\nsamples = 2\nvalue = [2, 0]\nclass = 0", fillcolor="#e58139"] ;
123 -> 129 ;
130 [label="Cabin_encoded_C <= 0.5\ngini = 0.475\nsamples = 18\nvalue = [11, 7]\nclass = 0", fillcolor="#f6d1b7"] ;
122 -> 130 ;
131 [label="Fare <= 52.277\ngini = 0.486\nsamples = 12\nvalue = [5, 7]\nclass = 1", fillcolor="#c6e3f8"] ;
130 -> 131 ;
132 [label="gini = 0.0\nsamples = 3\nvalue = [3, 0]\nclass = 0", fillcolor="#e58139"] ;
131 -> 132 ;
133 [label="Age <= 24.5\ngini = 0.346\nsamples = 9\nvalue = [2, 7]\nclass = 1", fillcolor="#72b9ec"] ;
131 -> 133 ;
134 [label="Cabin_encoded_D <= 0.5\ngini = 0.444\nsamples = 3\nvalue = [2, 1]\nclass = 0", fillcolor="#f2c09c"] ;
133 -> 134 ;
135 [label="gini = 0.0\nsamples = 1\nvalue = [1, 0]\nclass = 0", fillcolor="#e58139"] ;
134 -> 135 ;
136 [label="Age <= 21.0\ngini = 0.5\nsamples = 2\nvalue = [1, 1]\nclass = 0", fillcolor="#ffffff"] ;
134 -> 136 ;
137 [label="gini = 0.0\nsamples = 1\nvalue = [1, 0]\nclass = 0", fillcolor="#e58139"] ;
136 -> 137 ;
138 [label="gini = 0.0\nsamples = 1\nvalue = [0, 1]\nclass = 1", fillcolor="#399de5"] ;
136 -> 138 ;
139 [label="gini = 0.0\nsamples = 6\nvalue = [0, 6]\nclass = 1", fillcolor="#399de5"] ;
133 -> 139 ;
140 [label="gini = 0.0\nsamples = 6\nvalue = [6, 0]\nclass = 0", fillcolor="#e58139"] ;
130 -> 140 ;
141 [label="Cabin_encoded_A <= 0.5\ngini = 0.337\nsamples = 28\nvalue = [22, 6]\nclass = 0", fillcolor="#eca36f"] ;
121 -> 141 ;
142 [label="Age <= 47.5\ngini = 0.219\nsamples = 24\nvalue = [21, 3]\nclass = 0", fillcolor="#e99355"] ;
141 -> 142 ;
143 [label="gini = 0.0\nsamples = 9\nvalue = [9, 0]\nclass = 0", fillcolor="#e58139"] ;
142 -> 143 ;
144 [label="Age <= 49.5\ngini = 0.32\nsamples = 15\nvalue = [12, 3]\nclass = 0", fillcolor="#eca06a"] ;
142 -> 144 ;
145 [label="Parch <= 0.5\ngini = 0.444\nsamples = 3\nvalue = [1, 2]\nclass = 1", fillcolor="#9ccef2"] ;
144 -> 145 ;
146 [label="gini = 0.0\nsamples = 2\nvalue = [0, 2]\nclass = 1", fillcolor="#399de5"] ;
145 -> 146 ;
147 [label="gini = 0.0\nsamples = 1\nvalue = [1, 0]\nclass = 0", fillcolor="#e58139"] ;
145 -> 147 ;
148 [label="Fare <= 78.244\ngini = 0.153\nsamples = 12\nvalue = [11, 1]\nclass = 0", fillcolor="#e78c4b"] ;
144 -> 148 ;
149 [label="gini = 0.0\nsamples = 8\nvalue = [8, 0]\nclass = 0", fillcolor="#e58139"] ;
148 -> 149 ;
150 [label="Age <= 59.0\ngini = 0.375\nsamples = 4\nvalue = [3, 1]\nclass = 0", fillcolor="#eeab7b"] ;
148 -> 150 ;
151 [label="gini = 0.0\nsamples = 3\nvalue = [3, 0]\nclass = 0", fillcolor="#e58139"] ;
150 -> 151 ;
152 [label="gini = 0.0\nsamples = 1\nvalue = [0, 1]\nclass = 1", fillcolor="#399de5"] ;
150 -> 152 ;
153 [label="Fare <= 35.077\ngini = 0.375\nsamples = 4\nvalue = [1, 3]\nclass = 1", fillcolor="#7bbeee"] ;
141 -> 153 ;
154 [label="Fare <= 32.327\ngini = 0.5\nsamples = 2\nvalue = [1, 1]\nclass = 0", fillcolor="#ffffff"] ;
153 -> 154 ;
155 [label="gini = 0.0\nsamples = 1\nvalue = [0, 1]\nclass = 1", fillcolor="#399de5"] ;
154 -> 155 ;
156 [label="gini = 0.0\nsamples = 1\nvalue = [1, 0]\nclass = 0", fillcolor="#e58139"] ;
154 -> 156 ;
157 [label="gini = 0.0\nsamples = 2\nvalue = [0, 2]\nclass = 1", fillcolor="#399de5"] ;
153 -> 157 ;
158 [label="Age <= 0.915\ngini = 0.215\nsamples = 319\nvalue = [280, 39]\nclass = 0", fillcolor="#e99355"] ;
116 -> 158 ;
159 [label="gini = 0.0\nsamples = 2\nvalue = [0, 2]\nclass = 1", fillcolor="#399de5"] ;
158 -> 159 ;
160 [label="Age <= 10.0\ngini = 0.206\nsamples = 317\nvalue = [280, 37]\nclass = 0", fillcolor="#e89253"] ;
158 -> 160 ;
161 [label="SibSp <= 2.0\ngini = 0.444\nsamples = 12\nvalue = [8, 4]\nclass = 0", fillcolor="#f2c09c"] ;
160 -> 161 ;
162 [label="gini = 0.0\nsamples = 3\nvalue = [0, 3]\nclass = 1", fillcolor="#399de5"] ;
161 -> 162 ;
163 [label="Parch <= 1.5\ngini = 0.198\nsamples = 9\nvalue = [8, 1]\nclass = 0", fillcolor="#e89152"] ;
161 -> 163 ;
164 [label="gini = 0.0\nsamples = 6\nvalue = [6, 0]\nclass = 0", fillcolor="#e58139"] ;
163 -> 164 ;
165 [label="Fare <= 29.644\ngini = 0.444\nsamples = 3\nvalue = [2, 1]\nclass = 0", fillcolor="#f2c09c"] ;
163 -> 165 ;
166 [label="gini = 0.0\nsamples = 1\nvalue = [1, 0]\nclass = 0", fillcolor="#e58139"] ;
165 -> 166 ;
167 [label="SibSp <= 4.5\ngini = 0.5\nsamples = 2\nvalue = [1, 1]\nclass = 0", fillcolor="#ffffff"] ;
165 -> 167 ;
168 [label="gini = 0.0\nsamples = 1\nvalue = [0, 1]\nclass = 1", fillcolor="#399de5"] ;
167 -> 168 ;
169 [label="gini = 0.0\nsamples = 1\nvalue = [1, 0]\nclass = 0", fillcolor="#e58139"] ;
167 -> 169 ;
170 [label="Fare <= 7.133\ngini = 0.193\nsamples = 305\nvalue = [272, 33]\nclass = 0", fillcolor="#e89051"] ;
160 -> 170 ;
171 [label="gini = 0.0\nsamples = 26\nvalue = [26, 0]\nclass = 0", fillcolor="#e58139"] ;
170 -> 171 ;
172 [label="Fare <= 7.183\ngini = 0.209\nsamples = 279\nvalue = [246, 33]\nclass = 0", fillcolor="#e89254"] ;
170 -> 172 ;
173 [label="gini = 0.0\nsamples = 1\nvalue = [0, 1]\nclass = 1", fillcolor="#399de5"] ;
172 -> 173 ;
174 [label="Fare <= 51.798\ngini = 0.204\nsamples = 278\nvalue = [246, 32]\nclass = 0", fillcolor="#e89153"] ;
172 -> 174 ;
175 [label="Age <= 45.25\ngini = 0.194\nsamples = 266\nvalue = [237, 29]\nclass = 0", fillcolor="#e89051"] ;
174 -> 175 ;
176 [label="Age <= 44.5\ngini = 0.21\nsamples = 243\nvalue = [214, 29]\nclass = 0", fillcolor="#e99254"] ;
175 -> 176 ;
177 [label="Fare <= 26.775\ngini = 0.199\nsamples = 241\nvalue = [214, 27]\nclass = 0", fillcolor="#e89152"] ;
176 -> 177 ;
178 [label="Fare <= 26.4\ngini = 0.215\nsamples = 220\nvalue = [193, 27]\nclass = 0", fillcolor="#e99355"] ;
177 -> 178 ;
179 [label="Age <= 20.25\ngini = 0.209\nsamples = 219\nvalue = [193, 26]\nclass = 0", fillcolor="#e99254"] ;
178 -> 179 ;
180 [label="Age <= 19.5\ngini = 0.32\nsamples = 30\nvalue = [24, 6]\nclass = 0", fillcolor="#eca06a"] ;
179 -> 180 ;
181 [label="Fare <= 7.973\ngini = 0.219\nsamples = 24\nvalue = [21, 3]\nclass = 0", fillcolor="#e99355"] ;
180 -> 181 ;
182 [label="gini = 0.0\nsamples = 7\nvalue = [7, 0]\nclass = 0", fillcolor="#e58139"] ;
181 -> 182 ;
183 [label="Fare <= 8.175\ngini = 0.291\nsamples = 17\nvalue = [14, 3]\nclass = 0", fillcolor="#eb9c63"] ;
181 -> 183 ;
184 [label="Age <= 17.0\ngini = 0.444\nsamples = 3\nvalue = [1, 2]\nclass = 1", fillcolor="#9ccef2"] ;
183 -> 184 ;
185 [label="gini = 0.5\nsamples = 2\nvalue = [1, 1]\nclass = 0", fillcolor="#ffffff"] ;
184 -> 185 ;
186 [label="gini = 0.0\nsamples = 1\nvalue = [0, 1]\nclass = 1", fillcolor="#399de5"] ;
184 -> 186 ;
187 [label="Age <= 18.5\ngini = 0.133\nsamples = 14\nvalue = [13, 1]\nclass = 0", fillcolor="#e78b48"] ;
183 -> 187 ;
188 [label="gini = 0.0\nsamples = 11\nvalue = [11, 0]\nclass = 0", fillcolor="#e58139"] ;
187 -> 188 ;
189 [label="Pclass <= 2.5\ngini = 0.444\nsamples = 3\nvalue = [2, 1]\nclass = 0", fillcolor="#f2c09c"] ;
187 -> 189 ;
190 [label="gini = 0.0\nsamples = 1\nvalue = [0, 1]\nclass = 1", fillcolor="#399de5"] ;
189 -> 190 ;
191 [label="gini = 0.0\nsamples = 2\nvalue = [2, 0]\nclass = 0", fillcolor="#e58139"] ;
189 -> 191 ;
192 [label="SibSp <= 0.5\ngini = 0.5\nsamples = 6\nvalue = [3, 3]\nclass = 0", fillcolor="#ffffff"] ;
180 -> 192 ;
193 [label="Fare <= 7.542\ngini = 0.375\nsamples = 4\nvalue = [3, 1]\nclass = 0", fillcolor="#eeab7b"] ;
192 -> 193 ;
194 [label="gini = 0.0\nsamples = 1\nvalue = [0, 1]\nclass = 1", fillcolor="#399de5"] ;
193 -> 194 ;
195 [label="gini = 0.0\nsamples = 3\nvalue = [3, 0]\nclass = 0", fillcolor="#e58139"] ;
193 -> 195 ;
196 [label="gini = 0.0\nsamples = 2\nvalue = [0, 2]\nclass = 1", fillcolor="#399de5"] ;
192 -> 196 ;
197 [label="Fare <= 7.742\ngini = 0.189\nsamples = 189\nvalue = [169, 20]\nclass = 0", fillcolor="#e89050"] ;
179 -> 197 ;
198 [label="Fare <= 7.227\ngini = 0.069\nsamples = 28\nvalue = [27, 1]\nclass = 0", fillcolor="#e68640"] ;
197 -> 198 ;
199 [label="Age <= 25.85\ngini = 0.245\nsamples = 7\nvalue = [6, 1]\nclass = 0", fillcolor="#e9965a"] ;
198 -> 199 ;
200 [label="gini = 0.0\nsamples = 1\nvalue = [0, 1]\nclass = 1", fillcolor="#399de5"] ;
199 -> 200 ;
201 [label="gini = 0.0\nsamples = 6\nvalue = [6, 0]\nclass = 0", fillcolor="#e58139"] ;
199 -> 201 ;
202 [label="gini = 0.0\nsamples = 21\nvalue = [21, 0]\nclass = 0", fillcolor="#e58139"] ;
198 -> 202 ;
203 [label="Fare <= 7.798\ngini = 0.208\nsamples = 161\nvalue = [142, 19]\nclass = 0", fillcolor="#e89253"] ;
197 -> 203 ;
204 [label="Fare <= 7.785\ngini = 0.388\nsamples = 19\nvalue = [14, 5]\nclass = 0", fillcolor="#eeae80"] ;
203 -> 204 ;
205 [label="Age <= 29.35\ngini = 0.291\nsamples = 17\nvalue = [14, 3]\nclass = 0", fillcolor="#eb9c63"] ;
204 -> 205 ;
206 [label="Fare <= 7.763\ngini = 0.444\nsamples = 6\nvalue = [4, 2]\nclass = 0", fillcolor="#f2c09c"] ;
205 -> 206 ;
207 [label="gini = 0.0\nsamples = 1\nvalue = [0, 1]\nclass = 1", fillcolor="#399de5"] ;
206 -> 207 ;
208 [label="SibSp <= 0.5\ngini = 0.32\nsamples = 5\nvalue = [4, 1]\nclass = 0", fillcolor="#eca06a"] ;
206 -> 208 ;
209 [label="gini = 0.0\nsamples = 3\nvalue = [3, 0]\nclass = 0", fillcolor="#e58139"] ;
208 -> 209 ;
210 [label="gini = 0.5\nsamples = 2\nvalue = [1, 1]\nclass = 0", fillcolor="#ffffff"] ;
208 -> 210 ;
211 [label="Age <= 30.35\ngini = 0.165\nsamples = 11\nvalue = [10, 1]\nclass = 0", fillcolor="#e88e4d"] ;
205 -> 211 ;
212 [label="SibSp <= 0.5\ngini = 0.219\nsamples = 8\nvalue = [7, 1]\nclass = 0", fillcolor="#e99355"] ;
211 -> 212 ;
213 [label="gini = 0.245\nsamples = 7\nvalue = [6, 1]\nclass = 0", fillcolor="#e9965a"] ;
212 -> 213 ;
214 [label="gini = 0.0\nsamples = 1\nvalue = [1, 0]\nclass = 0", fillcolor="#e58139"] ;
212 -> 214 ;
215 [label="gini = 0.0\nsamples = 3\nvalue = [3, 0]\nclass = 0", fillcolor="#e58139"] ;
211 -> 215 ;
216 [label="gini = 0.0\nsamples = 2\nvalue = [0, 2]\nclass = 1", fillcolor="#399de5"] ;
204 -> 216 ;
217 [label="Age <= 28.75\ngini = 0.178\nsamples = 142\nvalue = [128.0, 14.0]\nclass = 0", fillcolor="#e88f4f"] ;
203 -> 217 ;
218 [label="gini = 0.0\nsamples = 42\nvalue = [42, 0]\nclass = 0", fillcolor="#e58139"] ;
217 -> 218 ;
219 [label="Age <= 32.5\ngini = 0.241\nsamples = 100\nvalue = [86.0, 14.0]\nclass = 0", fillcolor="#e99659"] ;
217 -> 219 ;
220 [label="Fare <= 9.492\ngini = 0.301\nsamples = 65\nvalue = [53, 12]\nclass = 0", fillcolor="#eb9e66"] ;
219 -> 220 ;
221 [label="Age <= 30.5\ngini = 0.198\nsamples = 36\nvalue = [32, 4]\nclass = 0", fillcolor="#e89152"] ;
220 -> 221 ;
222 [label="Age <= 29.35\ngini = 0.117\nsamples = 32\nvalue = [30, 2]\nclass = 0", fillcolor="#e78946"] ;
221 -> 222 ;
223 [label="Fare <= 7.973\ngini = 0.375\nsamples = 4\nvalue = [3, 1]\nclass = 0", fillcolor="#eeab7b"] ;
222 -> 223 ;
224 [label="Fare <= 7.885\ngini = 0.5\nsamples = 2\nvalue = [1, 1]\nclass = 0", fillcolor="#ffffff"] ;
223 -> 224 ;
225 [label="gini = 0.0\nsamples = 1\nvalue = [1, 0]\nclass = 0", fillcolor="#e58139"] ;
224 -> 225 ;
226 [label="gini = 0.0\nsamples = 1\nvalue = [0, 1]\nclass = 1", fillcolor="#399de5"] ;
224 -> 226 ;
227 [label="gini = 0.0\nsamples = 2\nvalue = [2, 0]\nclass = 0", fillcolor="#e58139"] ;
223 -> 227 ;
228 [label="Fare <= 8.081\ngini = 0.069\nsamples = 28\nvalue = [27, 1]\nclass = 0", fillcolor="#e68640"] ;
222 -> 228 ;
229 [label="gini = 0.0\nsamples = 24\nvalue = [24, 0]\nclass = 0", fillcolor="#e58139"] ;
228 -> 229 ;
230 [label="Fare <= 8.285\ngini = 0.375\nsamples = 4\nvalue = [3, 1]\nclass = 0", fillcolor="#eeab7b"] ;
228 -> 230 ;
231 [label="gini = 0.0\nsamples = 1\nvalue = [0, 1]\nclass = 1", fillcolor="#399de5"] ;
230 -> 231 ;
232 [label="gini = 0.0\nsamples = 3\nvalue = [3, 0]\nclass = 0", fillcolor="#e58139"] ;
230 -> 232 ;
233 [label="Age <= 31.5\ngini = 0.5\nsamples = 4\nvalue = [2, 2]\nclass = 0", fillcolor="#ffffff"] ;
221 -> 233 ;
234 [label="gini = 0.0\nsamples = 1\nvalue = [0, 1]\nclass = 1", fillcolor="#399de5"] ;
233 -> 234 ;
235 [label="Fare <= 8.144\ngini = 0.444\nsamples = 3\nvalue = [2, 1]\nclass = 0", fillcolor="#f2c09c"] ;
233 -> 235 ;
236 [label="gini = 0.5\nsamples = 2\nvalue = [1, 1]\nclass = 0", fillcolor="#ffffff"] ;
235 -> 236 ;
237 [label="gini = 0.0\nsamples = 1\nvalue = [1, 0]\nclass = 0", fillcolor="#e58139"] ;
235 -> 237 ;
238 [label="Fare <= 10.0\ngini = 0.4\nsamples = 29\nvalue = [21, 8]\nclass = 0", fillcolor="#efb184"] ;
220 -> 238 ;
239 [label="Age <= 29.35\ngini = 0.444\nsamples = 3\nvalue = [1, 2]\nclass = 1", fillcolor="#9ccef2"] ;
238 -> 239 ;
240 [label="gini = 0.0\nsamples = 1\nvalue = [0, 1]\nclass = 1", fillcolor="#399de5"] ;
239 -> 240 ;
241 [label="Age <= 29.85\ngini = 0.5\nsamples = 2\nvalue = [1, 1]\nclass = 0", fillcolor="#ffffff"] ;
239 -> 241 ;
242 [label="gini = 0.0\nsamples = 1\nvalue = [1, 0]\nclass = 0", fillcolor="#e58139"] ;
241 -> 242 ;
243 [label="gini = 0.0\nsamples = 1\nvalue = [0, 1]\nclass = 1", fillcolor="#399de5"] ;
241 -> 243 ;
244 [label="Parch <= 0.5\ngini = 0.355\nsamples = 26\nvalue = [20, 6]\nclass = 0", fillcolor="#eda774"] ;
238 -> 244 ;
245 [label="Fare <= 22.465\ngini = 0.298\nsamples = 22\nvalue = [18, 4]\nclass = 0", fillcolor="#eb9d65"] ;
244 -> 245 ;
246 [label="Fare <= 14.181\ngini = 0.188\nsamples = 19\nvalue = [17, 2]\nclass = 0", fillcolor="#e89050"] ;
245 -> 246 ;
247 [label="Age <= 29.85\ngini = 0.375\nsamples = 8\nvalue = [6, 2]\nclass = 0", fillcolor="#eeab7b"] ;
246 -> 247 ;
248 [label="Fare <= 11.75\ngini = 0.444\nsamples = 3\nvalue = [1, 2]\nclass = 1", fillcolor="#9ccef2"] ;
247 -> 248 ;
249 [label="gini = 0.0\nsamples = 1\nvalue = [1, 0]\nclass = 0", fillcolor="#e58139"] ;
248 -> 249 ;
250 [label="gini = 0.0\nsamples = 2\nvalue = [0, 2]\nclass = 1", fillcolor="#399de5"] ;
248 -> 250 ;
251 [label="gini = 0.0\nsamples = 5\nvalue = [5, 0]\nclass = 0", fillcolor="#e58139"] ;
247 -> 251 ;
252 [label="gini = 0.0\nsamples = 11\nvalue = [11, 0]\nclass = 0", fillcolor="#e58139"] ;
246 -> 252 ;
253 [label="Age <= 29.85\ngini = 0.444\nsamples = 3\nvalue = [1, 2]\nclass = 1", fillcolor="#9ccef2"] ;
245 -> 253 ;
254 [label="gini = 0.0\nsamples = 1\nvalue = [0, 1]\nclass = 1", fillcolor="#399de5"] ;
253 -> 254 ;
255 [label="Age <= 31.0\ngini = 0.5\nsamples = 2\nvalue = [1, 1]\nclass = 0", fillcolor="#ffffff"] ;
253 -> 255 ;
256 [label="gini = 0.0\nsamples = 1\nvalue = [1, 0]\nclass = 0", fillcolor="#e58139"] ;
255 -> 256 ;
257 [label="gini = 0.0\nsamples = 1\nvalue = [0, 1]\nclass = 1", fillcolor="#399de5"] ;
255 -> 257 ;
258 [label="Fare <= 20.356\ngini = 0.5\nsamples = 4\nvalue = [2, 2]\nclass = 0", fillcolor="#ffffff"] ;
244 -> 258 ;
259 [label="gini = 0.0\nsamples = 2\nvalue = [0, 2]\nclass = 1", fillcolor="#399de5"] ;
258 -> 259 ;
260 [label="gini = 0.0\nsamples = 2\nvalue = [2, 0]\nclass = 0", fillcolor="#e58139"] ;
258 -> 260 ;
261 [label="Fare <= 7.988\ngini = 0.108\nsamples = 35\nvalue = [33, 2]\nclass = 0", fillcolor="#e78945"] ;
219 -> 261 ;
262 [label="Age <= 38.5\ngini = 0.375\nsamples = 8\nvalue = [6, 2]\nclass = 0", fillcolor="#eeab7b"] ;
261 -> 262 ;
263 [label="gini = 0.0\nsamples = 5\nvalue = [5, 0]\nclass = 0", fillcolor="#e58139"] ;
262 -> 263 ;
264 [label="Age <= 41.5\ngini = 0.444\nsamples = 3\nvalue = [1, 2]\nclass = 1", fillcolor="#9ccef2"] ;
262 -> 264 ;
265 [label="gini = 0.5\nsamples = 2\nvalue = [1, 1]\nclass = 0", fillcolor="#ffffff"] ;
264 -> 265 ;
266 [label="gini = 0.0\nsamples = 1\nvalue = [0, 1]\nclass = 1", fillcolor="#399de5"] ;
264 -> 266 ;
267 [label="gini = 0.0\nsamples = 27\nvalue = [27, 0]\nclass = 0", fillcolor="#e58139"] ;
261 -> 267 ;
268 [label="gini = 0.0\nsamples = 1\nvalue = [0, 1]\nclass = 1", fillcolor="#399de5"] ;
178 -> 268 ;
269 [label="gini = 0.0\nsamples = 21\nvalue = [21, 0]\nclass = 0", fillcolor="#e58139"] ;
177 -> 269 ;
270 [label="gini = 0.0\nsamples = 2\nvalue = [0, 2]\nclass = 1", fillcolor="#399de5"] ;
176 -> 270 ;
271 [label="gini = 0.0\nsamples = 23\nvalue = [23, 0]\nclass = 0", fillcolor="#e58139"] ;
175 -> 271 ;
272 [label="Fare <= 63.023\ngini = 0.375\nsamples = 12\nvalue = [9, 3]\nclass = 0", fillcolor="#eeab7b"] ;
174 -> 272 ;
273 [label="Age <= 27.85\ngini = 0.444\nsamples = 3\nvalue = [1, 2]\nclass = 1", fillcolor="#9ccef2"] ;
272 -> 273 ;
274 [label="gini = 0.0\nsamples = 1\nvalue = [0, 1]\nclass = 1", fillcolor="#399de5"] ;
273 -> 274 ;
275 [label="gini = 0.5\nsamples = 2\nvalue = [1, 1]\nclass = 0", fillcolor="#ffffff"] ;
273 -> 275 ;
276 [label="Age <= 39.85\ngini = 0.198\nsamples = 9\nvalue = [8, 1]\nclass = 0", fillcolor="#e89152"] ;
272 -> 276 ;
277 [label="gini = 0.0\nsamples = 8\nvalue = [8, 0]\nclass = 0", fillcolor="#e58139"] ;
276 -> 277 ;
278 [label="gini = 0.0\nsamples = 1\nvalue = [0, 1]\nclass = 1", fillcolor="#399de5"] ;
276 -> 278 ;
}